/* Generated by Edge Impulse
 *
 * Permission is hereby granted, free of charge, to any person obtaining a copy
 * of this software and associated documentation files (the "Software"), to deal
 * in the Software without restriction, including without limitation the rights
 * to use, copy, modify, merge, publish, distribute, sublicense, and/or sell
 * copies of the Software, and to permit persons to whom the Software is
 * furnished to do so, subject to the following conditions:
 *
 * The above copyright notice and this permission notice shall be included in
 * all copies or substantial portions of the Software.
 *
 * THE SOFTWARE IS PROVIDED "AS IS", WITHOUT WARRANTY OF ANY KIND, EXPRESS OR
 * IMPLIED, INCLUDING BUT NOT LIMITED TO THE WARRANTIES OF MERCHANTABILITY,
 * FITNESS FOR A PARTICULAR PURPOSE AND NONINFRINGEMENT. IN NO EVENT SHALL THE
 * AUTHORS OR COPYRIGHT HOLDERS BE LIABLE FOR ANY CLAIM, DAMAGES OR OTHER
 * LIABILITY, WHETHER IN AN ACTION OF CONTRACT, TORT OR OTHERWISE, ARISING FROM,
 * OUT OF OR IN CONNECTION WITH THE SOFTWARE OR THE USE OR OTHER DEALINGS IN THE
 * SOFTWARE.
 */
// Generated on: 16.07.2022 16:58:14

#include <stdio.h>
#include <stdlib.h>
#include <vector>
#include "edge-impulse-sdk/tensorflow/lite/c/builtin_op_data.h"
#include "edge-impulse-sdk/tensorflow/lite/c/common.h"
#include "edge-impulse-sdk/tensorflow/lite/micro/micro_mutable_op_resolver.h"
#include "edge-impulse-sdk/porting/ei_classifier_porting.h"

#if EI_CLASSIFIER_PRINT_STATE
#if defined(__cplusplus) && EI_C_LINKAGE == 1
extern "C" {
    extern void ei_printf(const char *format, ...);
}
#else
extern void ei_printf(const char *format, ...);
#endif
#endif

#if defined __GNUC__
#define ALIGN(X) __attribute__((aligned(X)))
#elif defined _MSC_VER
#define ALIGN(X) __declspec(align(X))
#elif defined __TASKING__
#define ALIGN(X) __align(X)
#endif

using namespace tflite;
using namespace tflite::ops;
using namespace tflite::ops::micro;

namespace {

constexpr int kTensorArenaSize = 512;

#if defined(EI_CLASSIFIER_ALLOCATION_STATIC)
uint8_t tensor_arena[kTensorArenaSize] ALIGN(16);
#elif defined(EI_CLASSIFIER_ALLOCATION_STATIC_HIMAX)
#pragma Bss(".tensor_arena")
uint8_t tensor_arena[kTensorArenaSize] ALIGN(16);
#pragma Bss()
#elif defined(EI_CLASSIFIER_ALLOCATION_STATIC_HIMAX_GNU)
uint8_t tensor_arena[kTensorArenaSize] ALIGN(16) __attribute__((section(".tensor_arena")));
#else
#define EI_CLASSIFIER_ALLOCATION_HEAP 1
uint8_t* tensor_arena = NULL;
#endif

static uint8_t* tensor_boundary;
static uint8_t* current_location;

template <int SZ, class T> struct TfArray {
  int sz; T elem[SZ];
};
enum used_operators_e {
  OP_FULLY_CONNECTED, OP_SOFTMAX,  OP_LAST
};
struct TensorInfo_t { // subset of TfLiteTensor used for initialization from constant memory
  TfLiteAllocationType allocation_type;
  void* data;
  TfLiteIntArray* dims;
  size_t bytes;
};
struct NodeInfo_t { // subset of TfLiteNode used for initialization from constant memory
  struct TfLiteIntArray* inputs;
  struct TfLiteIntArray* outputs;
  void* builtin_data;
  used_operators_e used_op_index;
};

TfLiteContext ctx{};
TfLiteTensor tflTensors[11];
TfLiteEvalTensor tflEvalTensors[11];
TfLiteRegistration registrations[OP_LAST];
TfLiteNode tflNodes[4];

const TfArray<2, int> tensor_dimension0 = { 2, { 1,40 } };
const ALIGN(16) float tensor_data1[9] = { -0.53624993562698364, -2.3864917755126953, -0.62030583620071411, -0.14584052562713623, -0.14080464839935303, 0.53187090158462524, 0.96742498874664307, 0.029155036434531212, 0.98876500129699707, };
const TfArray<1, int> tensor_dimension1 = { 1, { 9 } };
const ALIGN(16) float tensor_data2[20] = { 0.3763347864151001, 0.03207908570766449, -0.0030776329804211855, 0.7295997142791748, 0.089687570929527283, 0.59652256965637207, -0.023000964894890785, 0.18879041075706482, 0.43297243118286133, 0.10274027287960052, 0.022211212664842606, -0.33684524893760681, -0.18913432955741882, -0.21624428033828735, 0.0011539002880454063, -0.0074188685975968838, 0.70250684022903442, -0.050418730825185776, 0.14464530348777771, 0.2516864538192749, };
const TfArray<1, int> tensor_dimension2 = { 1, { 20 } };
const ALIGN(16) float tensor_data3[40] = { -0.3364143967628479, -0.015221684239804745, -0.01351383700966835, 0, 0.16414864361286163, 0.35336881875991821, -0.0040321247652173042, 0, -0.034632477909326553, 0.19904744625091553, 0.14549173414707184, 0.1276218444108963, 0.045400980859994888, -0.43875405192375183, 0.27033829689025879, 0, -0.61551731824874878, -0.13061556220054626, -0.4620099663734436, -0.41619777679443359, -0.35191580653190613, -0.11378759890794754, 0.76151591539382935, -0.21535034477710724, 0.26838478446006775, -0.16134540736675262, 0.66811960935592651, 0.20468683540821075, -0.15438078343868256, -0.54045450687408447, 0.39595675468444824, -0.24045829474925995, -0.21699699759483337, -0.058260194957256317, 0, -0.23582041263580322, 0.31135070323944092, -0.22974702715873718, -0.0096015427261590958, 0.01153124962002039, };
const TfArray<1, int> tensor_dimension3 = { 1, { 40 } };
const ALIGN(16) float tensor_data4[40*40] = { 
  -0.081932611763477325, -0.043422423303127289, 0.073338419198989868, -0.11059508472681046, -0.67505341768264771, 0.21216557919979095, -0.22277504205703735, 0.084579065442085266, 0.21352005004882812, 0.86508840322494507, 0.34738847613334656, 0.3983893096446991, -0.13586054742336273, -0.14191617071628571, -0.50964075326919556, -0.20914925634860992, -0.024959076195955276, 0.071144700050354004, -0.17376965284347534, 0.65236550569534302, -0.046947706490755081, -0.030332699418067932, -0.47941863536834717, -0.29432424902915955, -0.93611764907836914, 0.75104331970214844, 0.35876879096031189, 0.68840622901916504, 0.65110146999359131, 1.4104737043380737, -0.042884409427642822, -0.19007065892219543, -0.22602306306362152, 0.055134143680334091, -0.75471282005310059, 0.41207441687583923, 0.19240380823612213, 0.099048852920532227, 0.33251258730888367, -0.5342479944229126, 
  0.02201550267636776, -0.011705580167472363, 0.041055761277675629, 0.15729501843452454, -0.23114649951457977, 0.12847878038883209, -0.071385748684406281, -0.1681063175201416, -0.11588262021541595, 0.17534986138343811, -0.030834492295980453, -0.22677800059318542, 0.074598789215087891, 0.055813603103160858, -0.14890037477016449, 0.20557667315006256, -0.27150127291679382, -0.25701960921287537, -0.098502114415168762, 0.18434184789657593, -0.15129022300243378, 0.040692195296287537, -0.23744983971118927, 0.055541787296533585, -0.05665038526058197, 0.15299111604690552, -0.26021429896354675, 0.23008148372173309, -0.25528949499130249, -0.062909230589866638, 0.21602654457092285, -0.16420063376426697, -0.10542671382427216, 0.080932751297950745, 0.15110145509243011, -0.28076645731925964, -0.079262949526309967, 0.13413091003894806, -0.21506483852863312, 0.14790049195289612, 
  -0.015756208449602127, -0.2270151674747467, -0.014143593609333038, -0.27211138606071472, -0.17879977822303772, -0.10199559479951859, -0.21068045496940613, 0.13220007717609406, -0.19640405476093292, 0.21672424674034119, 0.16804419457912445, -0.1495676189661026, -0.13559216260910034, 0.0136917969211936, -0.056799065321683884, -0.19191117584705353, -0.25119310617446899, -0.19703564047813416, 0.048255283385515213, -0.14634545147418976, 0.20643258094787598, -0.024065315723419189, -0.078628920018672943, 0.17492926120758057, 0.2589581310749054, 0.23511792719364166, 0.034419972449541092, 0.15656131505966187, 0.15068048238754272, 0.068496167659759521, 0.081144586205482483, -0.25192403793334961, 0.10986091196537018, -0.14277976751327515, 0.12771348655223846, 0.18216781318187714, -0.11423458158969879, -0.10606615245342255, -0.20156945288181305, -0.21442098915576935, 
  -0.26462382078170776, -0.21513262391090393, 0.07164454460144043, -0.18839180469512939, 0.041354745626449585, 0.0014884471893310547, 0.042837172746658325, 0.022754639387130737, -0.072585746645927429, 0.25538825988769531, -0.27041295170783997, 0.27148467302322388, -0.037379875779151917, 0.017600297927856445, 0.20610544085502625, -9.1612339019775391e-05, 0.018083393573760986, -0.060902103781700134, 0.064645379781723022, -0.20112583041191101, 0.015590161085128784, -0.063215970993041992, -0.20269697904586792, 0.2006818950176239, 0.15279626846313477, 0.22839438915252686, -0.10588999092578888, -0.24746046960353851, 0.1441616415977478, 0.17410352826118469, -0.25179016590118408, -0.057593673467636108, -0.15010853111743927, -0.083086654543876648, -0.25933527946472168, 0.12673118710517883, -0.0016578137874603271, 0.032729864120483398, -0.22947736084461212, -0.13238848745822906, 
  -0.11299065500497818, -0.27900677919387817, -0.030145179480314255, -0.32246994972229004, -0.056844331324100494, 0.074815556406974792, -0.026980066671967506, -0.24927800893783569, -0.14726836979389191, -0.47234907746315002, -0.022689411416649818, -0.14443136751651764, -0.13608625531196594, 0.21337735652923584, 0.2720319926738739, 0.062196094542741776, -0.042000427842140198, -0.09974227100610733, 0.2060682624578476, -0.19443769752979279, 0.21128451824188232, -0.099919266998767853, -0.15253891050815582, 0.32027250528335571, 0.64809435606002808, 0.86920315027236938, 0.78128290176391602, 0.95154881477355957, 0.91589933633804321, 1.3210709095001221, -0.098875381052494049, -0.0020547020249068737, 0.33156883716583252, 0.1286110132932663, 0.16716811060905457, -0.52363419532775879, -0.60984742641448975, -0.3022388219833374, -0.33214068412780762, 0.91211241483688354, 
  0.00614969152957201, -0.18155878782272339, -0.1350296288728714, -0.064180217683315277, 0.27432882785797119, -0.0090657472610473633, 0.37678989768028259, 0.31949138641357422, -0.014997664839029312, -0.24617563188076019, 0.31814619898796082, 0.52722960710525513, 0.12901249527931213, 0.47878783941268921, -1.1894474029541016, -1.2711237668991089, -1.3610681295394897, -1.4951760768890381, -1.4223653078079224, -1.2689613103866577, -0.01461323257535696, 0.23733679950237274, -0.094251304864883423, -0.25610309839248657, -0.91513186693191528, 0.013209264725446701, -0.02478758804500103, 0.0012413155054673553, 0.1283232569694519, -0.75057846307754517, -0.13466973602771759, 0.16097989678382874, -0.029975792393088341, 0.090393267571926117, -1.1518239974975586, -0.92404294013977051, -0.71696758270263672, -0.8815467357635498, -0.59703701734542847, -2.5365192890167236, 
  -0.20649512112140656, -0.038101378828287125, -0.10861928761005402, 0.075329497456550598, -0.12787291407585144, -0.22865599393844604, -0.27310863137245178, 0.23079948127269745, -0.060373023152351379, 0.070491276681423187, 0.046783570200204849, 0.24549376964569092, 0.064670689404010773, -0.1369544118642807, 0.067871034145355225, 0.11567632108926773, -0.17378589510917664, -0.1013619676232338, 0.057360146194696426, 0.024458020925521851, 0.20890703797340393, -0.2399059534072876, -0.044053442776203156, 0.19389650225639343, 0.1400156170129776, 0.092774249613285065, 0.17912773787975311, -0.25932544469833374, -0.15624240040779114, 0.015706676989793777, 0.10112776607275009, 0.036522857844829559, -0.11623010039329529, 0.083601094782352448, -0.12690241634845734, -0.24733354151248932, -0.051912069320678711, -0.10876631736755371, 0.060443799942731857, 0.2107413113117218, 
  -0.090037420392036438, -0.18270185589790344, -0.22273866832256317, 0.039456397294998169, 0.21609902381896973, 0.1704351007938385, -0.19519945979118347, -0.15004342794418335, -0.0051003992557525635, 0.015810728073120117, -0.083942711353302002, -0.260303795337677, -0.043011128902435303, 0.18822231888771057, 0.098609298467636108, -0.23917856812477112, -0.23854175209999084, 0.028211206197738647, -0.26680031418800354, 0.11631321907043457, 0.031735062599182129, 0.1705310046672821, -0.17864274978637695, 0.1187107264995575, 0.057635396718978882, 0.24523824453353882, -0.12363862991333008, 0.10725352168083191, 0.0003414154052734375, -0.087476283311843872, -0.040670678019523621, 0.079570204019546509, -0.24149660766124725, 0.11026343703269958, 0.17100998759269714, -0.25595849752426147, -0.089486867189407349, 0.095337569713592529, 0.039596259593963623, 0.21791628003120422, 
  0.043389320373535156, 0.060129549354314804, 0.12843254208564758, -0.12671180069446564, 0.078028172254562378, -0.28214848041534424, 0.0056752352975308895, -0.28745579719543457, 0.033154737204313278, 0.16654999554157257, -0.057925332337617874, -0.074192225933074951, -0.1405407190322876, -0.25729304552078247, 0.19596640765666962, -0.10434164106845856, -0.1267477422952652, 0.1785336434841156, -0.052069861441850662, -0.24025654792785645, 0.12415508180856705, -0.20095972716808319, -0.08823075145483017, 0.2000613808631897, -0.20777957141399384, -0.28674918413162231, 0.042334798723459244, -0.095513693988323212, -0.24377912282943726, 0.14611946046352386, -0.063950404524803162, -0.16222564876079559, 0.21247686445713043, -0.28749367594718933, -0.0017270848620682955, 0.07038523256778717, 0.086946636438369751, -0.22284305095672607, 0.081620410084724426, 0.20098753273487091, 
  -0.39500376582145691, -0.35703611373901367, -0.61641931533813477, -0.40347674489021301, 0.28296297788619995, -0.031173184514045715, -0.16200487315654755, -0.026581661775708199, 0.032160896807909012, -0.69554734230041504, 0.082114942371845245, -0.15421001613140106, 0.13669382035732269, -0.16458883881568909, 0.35751011967658997, -0.21909424662590027, -0.031832084059715271, 0.0035530778113752604, -0.022916827350854874, 0.35529002547264099, -0.11178794503211975, 0.21450546383857727, 0.16955676674842834, 0.26029542088508606, -0.10746312141418457, -0.62330591678619385, -0.69228434562683105, -0.38576003909111023, -0.76467102766036987, -1.2795945405960083, 0.12747471034526825, 0.54119294881820679, 0.52966809272766113, 0.53100860118865967, -0.092979401350021362, 0.085363946855068207, -0.066830821335315704, 0.17027132213115692, 0.23787206411361694, -0.2517605721950531, 
  -0.37920001149177551, -0.42026358842849731, 0.092084936797618866, -0.075058780610561371, 0.054972678422927856, 0.0021043994929641485, 0.038985937833786011, -0.054631911218166351, -0.18852886557579041, -0.96490710973739624, -0.092457771301269531, 0.10917016118764877, -0.08565104752779007, -0.1313917487859726, 0.49448397755622864, 0.24017712473869324, -0.18409016728401184, 0.17192712426185608, -0.086572431027889252, -0.40001669526100159, -0.082059808075428009, 0.24081049859523773, 0.11337638646364212, 0.078518353402614594, -0.08403690904378891, 1.1068201065063477, 0.62708431482315063, 1.0390933752059937, 0.89928990602493286, 0.8683350682258606, -0.19841238856315613, 0.10983806103467941, -0.2407529354095459, 0.17446734011173248, -0.10317034274339676, -0.33906403183937073, -0.44787880778312683, -0.094689846038818359, -0.43862289190292358, 0.89715665578842163, 
  0.3414769172668457, 0.10413491725921631, 0.14481513202190399, 0.18537318706512451, 0.38932543992996216, -0.16964541375637054, -0.076521970331668854, -0.27458792924880981, -0.073330722749233246, 0.39316165447235107, -0.58848178386688232, -0.73909574747085571, -0.50765472650527954, -0.77230364084243774, -0.69835907220840454, -0.82531386613845825, -0.76883405447006226, -0.37927132844924927, -0.36771261692047119, -0.25938847661018372, -0.35082390904426575, -0.50045984983444214, -0.4717572033405304, -0.50746679306030273, -0.52106225490570068, 0.15067996084690094, 0.44119945168495178, 0.47407901287078857, 0.42974185943603516, -0.71884524822235107, -0.33303245902061462, -0.091273963451385498, -0.24577873945236206, -0.06752583384513855, -0.45265823602676392, -1.8375074863433838, -1.6591495275497437, -1.7349506616592407, -1.8242799043655396, -1.3558944463729858, 
  -0.1584700345993042, -0.21448010206222534, -0.052655182778835297, -0.18838182091712952, -0.25173461437225342, -0.045066788792610168, -0.21584036946296692, 0.20881041884422302, 0.11165367811918259, -0.9569857120513916, -0.25131726264953613, 0.24803142249584198, -0.24336808919906616, -0.20908063650131226, 0.19472235441207886, 0.16082511842250824, -0.11820243299007416, -0.26036229729652405, -0.16444540023803711, -0.17351751029491425, 0.016474762931466103, 0.12341565638780594, 0.059671543538570404, 0.23862679302692413, 0.3079950213432312, 0.57790207862854004, 0.55674171447753906, 0.88999795913696289, 0.84939110279083252, 1.305625319480896, -0.17412771284580231, 0.12377963960170746, -0.03421802818775177, 0.26909381151199341, 0.28341376781463623, -0.58623373508453369, -0.19799792766571045, -0.62090975046157837, -0.32447329163551331, -2.4592578411102295, 
  0.046299654990434647, -0.060709141194820404, 0.050905562937259674, 0.14954574406147003, -0.73649829626083374, 0.32271242141723633, 0.1792365163564682, 0.083876907825469971, -0.098388686776161194, 1.7187769412994385, -0.26813903450965881, -0.041650842875242233, -0.40623122453689575, 0.074861288070678711, 0.17734825611114502, -0.31826132535934448, -0.030620615929365158, 0.1011582612991333, 0.15535742044448853, 0.18885628879070282, -0.2745015025138855, 0.033777415752410889, -0.39180752635002136, -0.34087011218070984, -1.4701399803161621, 0.022463623434305191, 0.18956862390041351, 0.35517445206642151, 0.24766121804714203, -0.95307660102844238, 0.03242487832903862, 0.34651589393615723, -0.0071117649786174297, 0.12983077764511108, -1.7185214757919312, 0.33138024806976318, 0.16116037964820862, 0.33798202872276306, 0.21013802289962769, -0.4577828049659729, 
  -0.061304956674575806, 0.36722183227539062, 0.22820135951042175, 0.23669134080410004, 0.78759992122650146, -0.61908221244812012, -0.626761794090271, -0.34914538264274597, -0.53689444065093994, 0.7763177752494812, 0.21263657510280609, -0.016598057001829147, 0.38558498024940491, -0.024651370942592621, 0.15456810593605042, -0.14316992461681366, 0.020370112732052803, 0.05055568739771843, -0.10124746710062027, -0.18054370582103729, 0.21589997410774231, 0.37962943315505981, 0.14792750775814056, 0.38836744427680969, 0.94350022077560425, -0.76289665699005127, -0.39266929030418396, -0.6155509352684021, -0.65917187929153442, -0.42594453692436218, -0.12308052182197571, 0.044745754450559616, -0.0640106201171875, 0.30335468053817749, 0.90207564830780029, 0.1472676545381546, 0.10268271714448929, -0.043950926512479782, 0.18001572787761688, 0.85537689924240112, 
  -0.16674652695655823, -0.083702892065048218, -0.066378533840179443, -0.16330742835998535, -0.037493035197257996, -0.15908887982368469, -0.10858961939811707, 0.26724761724472046, -0.021937012672424316, 0.16742107272148132, 0.063701093196868896, 0.066242069005966187, -0.12265209853649139, 0.16362771391868591, 0.024922758340835571, -0.25018411874771118, -0.23769541084766388, 0.17447531223297119, -0.070435956120491028, -0.012495815753936768, 0.2284771203994751, 0.21466439962387085, -0.10724176466464996, -0.25187098979949951, -0.097616568207740784, -0.033718347549438477, 0.06601908802986145, 0.05259355902671814, -0.032358407974243164, -0.039767399430274963, 0.15801283717155457, -0.202260822057724, -0.018765181303024292, -0.14880363643169403, -0.25200757384300232, 0.22139480710029602, 0.069591641426086426, -0.11073608696460724, -0.11276482045650482, -0.19264477491378784, 
  -0.17794930934906006, 0.18862235546112061, 0.012700115330517292, -0.0043079624883830547, -0.91350114345550537, 0.21024969220161438, 0.027726532891392708, 0.04293515533208847, 0.3885873556137085, 2.3251974582672119, -0.12367422133684158, -0.10039516538381577, 0.15419161319732666, -0.077339664101600647, 0.20261602103710175, 0.10234510153532028, 0.042977020144462585, 0.16115382313728333, 0.043989740312099457, -0.11532217264175415, -0.27399632334709167, -0.47476953268051147, -0.23580130934715271, -0.20927716791629791, -0.48140972852706909, 0.52389347553253174, 0.27940446138381958, 0.18945221602916718, 0.059797056019306183, -0.80233973264694214, -0.2011917382478714, -0.13369278609752655, -0.13790404796600342, -0.11597755551338196, -0.39291197061538696, 0.10954594612121582, 0.44231495261192322, 0.29451474547386169, 0.43231120705604553, -0.019645350053906441, 
  -0.35820883512496948, -0.4946637749671936, 0.0014145729364827275, -0.19318482279777527, -0.33345898985862732, 0.05068645253777504, 0.078267216682434082, -0.011373904533684254, 0.038695581257343292, 0.6119038462638855, -0.25351762771606445, 0.2178548276424408, 0.19406545162200928, -0.19837425649166107, -0.14655734598636627, 0.31437116861343384, 0.22534041106700897, -0.047374945133924484, 0.40736174583435059, -0.085203468799591064, -0.21557009220123291, -0.21498622000217438, 0.25481000542640686, 0.16232572495937347, 0.057157445698976517, -0.73205506801605225, -0.73047494888305664, -0.3749067485332489, -0.64658033847808838, -0.91336041688919067, 0.61304926872253418, 0.5835908055305481, 0.64514142274856567, 0.3109315037727356, 0.21009458601474762, 0.28170090913772583, -0.17498613893985748, 0.21469086408615112, -0.14308077096939087, -0.095471948385238647, 
  -0.16489243507385254, 0.23580487072467804, 0.18072140216827393, 0.011566857807338238, -0.18876306712627411, -0.027961917221546173, 0.38987106084823608, 0.096118681132793427, 0.094880633056163788, 1.5778440237045288, 0.113445945084095, -0.17672385275363922, -0.34026756882667542, 0.11565414816141129, -0.1668115109205246, 0.10601679235696793, 0.15332537889480591, 0.077408537268638611, 0.061037223786115646, 0.076026052236557007, -0.35762432217597961, -0.15467438101768494, -0.038418326526880264, -0.47186070680618286, -0.91743934154510498, 0.27446243166923523, 0.056462816894054413, 0.36135149002075195, 0.2872454822063446, 0.12053924798965454, 0.020926596596837044, 0.28785690665245056, 0.17228883504867554, -0.20965059101581573, -0.98975098133087158, 0.27819401025772095, 0.21556226909160614, 0.41959595680236816, 0.025348450988531113, -0.16368478536605835, 
  -0.0965566486120224, 0.16924339532852173, 0.037222821265459061, -0.015070927329361439, -0.31515210866928101, -0.01834101602435112, 0.023087667301297188, 0.27748888731002808, 0.10895054787397385, 0.72657686471939087, -0.18513284623622894, 0.2354104220867157, -0.022473486140370369, -0.12931033968925476, -1.20561683177948, -0.39325615763664246, 0.0886884406208992, -0.013910441659390926, 0.081755362451076508, 0.81740230321884155, -0.43244001269340515, 0.086134113371372223, -0.43472704291343689, -0.26216182112693787, -1.6412395238876343, 0.65213465690612793, 0.32189494371414185, 0.33727625012397766, 0.64472883939743042, 0.80624449253082275, -0.033101767301559448, 0.024805441498756409, -0.3023814857006073, 0.15150512754917145, -1.4482460021972656, 0.42455622553825378, 0.31202277541160583, -0.052255243062973022, 0.35751697421073914, -0.874580979347229, 
  -0.127253457903862, 0.094305358827114105, 0.083076745271682739, -0.13698717951774597, -0.5217585563659668, -0.13898077607154846, 0.22826190292835236, 0.26604199409484863, -0.091236025094985962, 0.5554078221321106, -0.076398938894271851, -0.17161846160888672, -0.13205203413963318, 0.22079245746135712, -0.10385868698358536, -0.22865903377532959, 0.21950447559356689, -0.15029208362102509, 0.16896183788776398, -0.21705113351345062, -0.024398347362875938, -0.12502871453762054, -0.23217839002609253, -0.16268938779830933, -0.86066663265228271, 0.58783841133117676, 0.59220778942108154, 0.43301734328269958, 0.32281056046485901, 0.20651279389858246, -0.051803424954414368, -0.035164274275302887, -0.06033581867814064, 0.14651288092136383, -0.78898799419403076, -0.019802628085017204, 0.19147312641143799, 0.40465009212493896, 0.34018665552139282, 0.022635240107774734, 
  0.39954420924186707, 0.23439262807369232, 0.59374845027923584, 0.56038731336593628, 1.2013294696807861, -0.63797634840011597, -0.75321710109710693, -0.60543334484100342, -0.73551887273788452, 1.6163207292556763, -0.12160018086433411, 0.13349485397338867, -0.098916560411453247, 0.21686181426048279, -0.15110090374946594, 0.10432066023349762, -0.16003558039665222, 0.049348793923854828, 0.016521578654646873, -0.48116591572761536, 0.0066209938377141953, -0.073052622377872467, -0.26376700401306152, -0.052298352122306824, 0.81406056880950928, 0.28994825482368469, -0.1786036342382431, 0.047912504523992538, 0.29189547896385193, 2.1076288223266602, 0.14980429410934448, 0.23713560402393341, 0.021277733147144318, -0.04997030645608902, 1.1761981248855591, 0.17917510867118835, -0.12995119392871857, 0.0779738649725914, -0.19704848527908325, 0.06594470888376236, 
  -0.22724056243896484, 0.15231972932815552, 0.10058978945016861, -0.025170270353555679, 0.34646841883659363, -0.43571385741233826, -0.46081936359405518, -0.56616359949111938, -0.43294352293014526, 1.1502071619033813, -0.059663742780685425, 0.059705931693315506, 0.11308164894580841, -0.19241899251937866, -0.38694915175437927, 0.31557667255401611, 0.29655608534812927, 0.15258260071277618, 0.058845322579145432, -0.46636804938316345, -0.25604361295700073, -0.28832653164863586, -0.11918962001800537, -0.27185016870498657, 0.7463679313659668, -0.45243823528289795, -0.74759429693222046, -0.18233098089694977, -0.36348608136177063, 1.6578812599182129, -0.23085786402225494, 0.061174958944320679, -0.11477894335985184, 0.05118623748421669, 1.0744900703430176, 0.011123034171760082, 0.10650587826967239, 0.10948732495307922, -0.15843415260314941, 0.36757203936576843, 
  0.28024047613143921, 0.466187983751297, 0.43161517381668091, 0.39491647481918335, 0.00059880036860704422, -0.38351422548294067, -0.04579489678144455, -0.26469147205352783, -0.20598448812961578, 2.5357365608215332, -0.35667723417282104, -0.27652603387832642, 0.29275032877922058, -0.2033236175775528, 0.14314395189285278, 0.46217077970504761, 0.055225498974323273, 0.39980047941207886, 0.20942218601703644, -0.30960825085639954, -0.38036155700683594, -0.17471379041671753, -0.51731324195861816, -0.53428184986114502, -0.39746025204658508, -0.50056099891662598, -0.10418933629989624, -0.49780029058456421, -0.33915627002716064, -0.056701622903347015, -0.20214363932609558, 0.10754426568746567, 0.0066269319504499435, -0.32557317614555359, -0.022471245378255844, 0.077872790396213531, 0.075116828083992004, -0.075184561312198639, 0.27293199300765991, -0.19727393984794617, 
  0.20003022253513336, 0.21637214720249176, 0.28988614678382874, -0.057752694934606552, 0.59665000438690186, 0.26281264424324036, 0.21010801196098328, 0.23005953431129456, 0.1336672455072403, -1.2555155754089355, -0.19370175898075104, -0.073123186826705933, -0.16043436527252197, 0.019845465198159218, 0.20319987833499908, 0.020261757075786591, 0.21579064428806305, 0.11922547966241837, 0.30084517598152161, 0.50847923755645752, -0.6609075665473938, -0.51650238037109375, -0.44864749908447266, -0.23384852707386017, 0.14320921897888184, -0.31546691060066223, -0.20091205835342407, -0.15813860297203064, -0.28080597519874573, -1.5549582242965698, -0.63080519437789917, -0.83238452672958374, -0.72417783737182617, -0.86323946714401245, -1.3428777456283569, -0.047188814729452133, 0.032720401883125305, 0.05464920774102211, 0.036675252020359039, 0.22567476332187653, 
  -0.026054644957184792, 0.082480147480964661, 0.22856751084327698, 0.21821358799934387, -0.089358344674110413, -0.29365110397338867, -0.26895466446876526, -0.062732800841331482, -0.03012586385011673, 1.2898170948028564, -0.10414405167102814, 0.084714688360691071, 0.25444293022155762, 0.05255170539021492, 0.038050096482038498, 0.16349652409553528, 0.18543307483196259, 0.080297395586967468, -0.012846407480537891, -0.26044496893882751, 0.27667692303657532, 0.31776651740074158, 0.41669946908950806, 0.37294018268585205, 1.00337815284729, -0.65289109945297241, -0.77547520399093628, -0.50340861082077026, -0.76812887191772461, -0.62067711353302002, 0.22845719754695892, 0.22279499471187592, 0.25017121434211731, 0.33906209468841553, 0.51123631000518799, -0.15314146876335144, -0.34442031383514404, -0.22455182671546936, 0.23722536861896515, 0.82451099157333374, 
  0.45061132311820984, 0.10816118866205215, 0.28612366318702698, 0.14501403272151947, 0.26344498991966248, -0.2545282244682312, -0.23563584685325623, 0.008427903987467289, 0.078726738691329956, -1.1460860967636108, -1.8911584615707397, -2.0139131546020508, -1.8865737915039062, -1.8149772882461548, -2.2320120334625244, -1.2711328268051147, -1.1961387395858765, -1.3223998546600342, -1.0062553882598877, -1.6904538869857788, -0.6778678297996521, -0.84566521644592285, -0.68975836038589478, -0.4517349898815155, 0.86941516399383545, -0.059843767434358597, -0.15646295249462128, 0.019707800820469856, 0.023615293204784393, -2.342254638671875, -0.90594595670700073, -0.91121309995651245, -1.0760540962219238, -0.90488052368164062, -1.3351612091064453, -0.32420456409454346, -0.3127397894859314, -0.65574932098388672, -0.38937863707542419, -2.0070216655731201, 
  0.19431503117084503, -0.13204611837863922, 0.18062619864940643, -0.32068789005279541, -0.25414469838142395, -0.24335610866546631, -0.18775482475757599, -0.15529061853885651, -0.31120660901069641, -2.6487150192260742, -0.32015496492385864, -0.11093829572200775, -0.42461419105529785, -0.049944333732128143, -0.21449387073516846, 0.067086361348628998, -0.36666050553321838, -0.057616695761680603, -0.096693828701972961, 0.40539669990539551, -0.35075202584266663, -0.26865088939666748, 0.076816551387310028, 0.10215267539024353, -0.62313210964202881, 0.70075947046279907, 0.84784430265426636, 0.65159010887145996, 0.85381895303726196, 0.54006201028823853, -0.15259575843811035, -0.082172013819217682, -0.21533899009227753, -0.47456252574920654, -0.64400124549865723, 0.24412991106510162, 0.27814772725105286, 0.13754156231880188, 0.029955474659800529, 0.13565272092819214, 
  0.095948249101638794, -0.27372938394546509, 0.11178408563137054, -0.067741364240646362, 0.24618333578109741, 0.31376233696937561, -0.074357561767101288, -0.082601435482501984, 0.010994588024914265, 1.4176497459411621, -0.047543875873088837, -0.033889926970005035, 0.2016507089138031, 0.090974368155002594, -0.40732133388519287, 0.089531771838665009, 0.14634926617145538, 0.086626537144184113, 0.023354949429631233, -0.034145504236221313, -0.11842105537652969, 0.26689660549163818, 0.13903036713600159, 0.23694817721843719, 0.85937702655792236, -0.82905662059783936, -0.80348712205886841, -0.64437371492385864, -0.53318268060684204, -0.9015737771987915, 0.41805651783943176, 0.48327693343162537, 0.46687406301498413, 0.25804081559181213, 0.015818586573004723, -0.31485390663146973, 0.10815645754337311, 0.14115928113460541, 0.014625431969761848, 0.26567518711090088, 
  -0.11111950129270554, -0.028837746009230614, -0.17730030417442322, -0.26610499620437622, -0.90199029445648193, 0.14401999115943909, 0.20785725116729736, 0.12755760550498962, 0.47087767720222473, 1.4780868291854858, -0.047777742147445679, 0.2578849196434021, -0.0006933879922144115, -0.030506690964102745, 0.66520661115646362, 0.17408937215805054, -0.10017567873001099, 0.32956475019454956, 0.29048064351081848, 0.29897037148475647, -0.5013967752456665, -0.19504843652248383, -0.61160141229629517, -0.41496109962463379, -0.41652631759643555, 0.6291767954826355, 0.63645440340042114, 0.10466299206018448, 0.25318175554275513, 0.11571314185857773, -0.34679093956947327, -0.43174237012863159, 0.011228155344724655, -0.38797572255134583, -0.11574007570743561, 0.15682564675807953, 0.36320048570632935, 0.30224764347076416, 0.45100152492523193, -0.15615670382976532, 
  -0.13014978170394897, -0.10888819396495819, 0.0026936051435768604, 0.085477948188781738, 0.21476633846759796, 0.41250786185264587, 0.41136100888252258, -0.017532691359519958, 0.34741747379302979, -0.0676560178399086, 0.50362306833267212, 0.32153436541557312, 0.50240832567214966, 0.63757157325744629, -1.2011944055557251, -0.96563076972961426, -0.93550843000411987, -0.80368149280548096, -0.88033664226531982, -0.74723547697067261, -0.34898927807807922, -0.11549054831266403, -0.19584895670413971, -0.19753332436084747, -1.2199177742004395, -0.10128799825906754, 0.036445371806621552, -0.15247276425361633, 0.25174376368522644, -0.333608478307724, -0.31281453371047974, -0.59284478425979614, -0.50528663396835327, -0.43495053052902222, -0.95190930366516113, -0.79080414772033691, -0.8071056604385376, -0.95755326747894287, -0.98226189613342285, -2.393233060836792, 
  0.34099900722503662, 0.14542526006698608, 0.45862287282943726, 0.38246738910675049, 0.0085643036291003227, 0.28962135314941406, -0.10787361860275269, 0.17711305618286133, 0.22329828143119812, -0.8052680492401123, -0.33466053009033203, -0.35863173007965088, -0.28840050101280212, 0.0048454892821609974, 0.83127075433731079, -0.46919834613800049, -0.80652725696563721, -0.68731486797332764, -0.43457528948783875, 0.42932826280593872, -0.22618652880191803, -0.38185811042785645, -0.17557501792907715, -0.14793354272842407, 0.097284078598022461, 0.13675901293754578, 0.44129011034965515, 0.0092328665778040886, 0.26976948976516724, -0.59255522489547729, -0.4531390368938446, -0.38550305366516113, -0.25115558505058289, -0.57424908876419067, -0.044445443898439407, -0.16608400642871857, 0.18165189027786255, 0.04507606104016304, 0.06946728378534317, 0.26653075218200684, 
  0.40241298079490662, 0.065619342029094696, 0.13022159039974213, 0.10032365471124649, -0.60041981935501099, -0.67917293310165405, -0.33041676878929138, -0.79992765188217163, -0.56243306398391724, 0.0018991820979863405, -0.058437876403331757, -0.24085037410259247, 0.1152205690741539, 0.096769824624061584, 0.52549749612808228, -0.28130444884300232, 0.02460080198943615, -0.34618929028511047, -0.21784964203834534, 0.19392412900924683, 0.36239171028137207, 0.49501466751098633, 0.20519903302192688, 0.1897616982460022, 0.52475982904434204, 0.1309904158115387, 0.03050641156733036, 0.3972991406917572, 0.23002462089061737, -0.10370254516601562, 0.15774746239185333, 0.26213863492012024, 0.50683796405792236, 0.54434889554977417, 0.38470631837844849, -0.19974884390830994, -0.071183525025844574, 0.27099642157554626, 0.1027446836233139, 0.74959367513656616, 
  0.33696064352989197, 0.45155936479568481, 0.20592460036277771, 0.217975914478302, 1.1713635921478271, -0.013069032691419125, -0.38275933265686035, -0.17144590616226196, -0.39021334052085876, 2.3483748435974121, -0.19566863775253296, -0.006860584020614624, 0.15622337162494659, 0.0052724662236869335, -0.42512133717536926, 0.22105312347412109, 0.15236440300941467, 0.017202991992235184, -0.20920006930828094, -0.73796689510345459, -0.072441093623638153, -0.15647512674331665, -0.015353793278336525, -0.071695536375045776, 0.93528926372528076, -0.78031414747238159, -0.69698143005371094, -0.43292340636253357, -0.35987171530723572, 0.43827298283576965, 0.094724096357822418, 0.017389643937349319, 0.2698272168636322, 0.25983455777168274, 0.93696212768554688, -0.18629351258277893, 0.11990879476070404, -0.16983380913734436, 0.098993323743343353, 0.48264017701148987, 
  -0.26940461993217468, -0.12879988551139832, -0.092761009931564331, 0.16744771599769592, -0.099785104393959045, -0.046503946185112, -0.072461098432540894, -0.042265281081199646, -0.12323485314846039, -0.15798443555831909, 0.11252754926681519, 0.0983009934425354, 0.010638684034347534, -0.037580788135528564, 0.016988694667816162, -0.0073450803756713867, 0.17788919806480408, -0.26132133603096008, 0.023807495832443237, -0.09141896665096283, -0.21378272771835327, -0.24122361838817596, -0.0024302899837493896, -0.26287034153938293, 0.025429785251617432, 0.014173805713653564, 0.1307767927646637, -0.12481032311916351, 0.028394639492034912, 0.21121853590011597, 0.16706952452659607, -0.072126790881156921, 0.020178020000457764, 0.23540842533111572, -0.24579960107803345, -0.042056336998939514, 0.0084399282932281494, 0.074726194143295288, -0.028324633836746216, -0.013956457376480103, 
  0.059783685952425003, -0.10611490905284882, 0.034223631024360657, -0.33405798673629761, -0.67082011699676514, 0.13726226985454559, -0.067797400057315826, -0.1905098557472229, 0.19731965661048889, 0.55334210395812988, -0.38738536834716797, -0.51114934682846069, -0.31052178144454956, -0.15700274705886841, 0.035298820585012436, -0.22224476933479309, 0.087745063006877899, -0.032507989555597305, 0.18005785346031189, 0.68213057518005371, -0.31890559196472168, -0.1437041312456131, -0.053853381425142288, 0.08865029364824295, -1.0944509506225586, 0.84750688076019287, 0.79875624179840088, 0.84222394227981567, 0.5878756046295166, 0.15569162368774414, -0.27910381555557251, -0.20217958092689514, -0.049201332032680511, -0.37993749976158142, -1.1347607374191284, 0.20625221729278564, 0.15735322237014771, 0.42661353945732117, 0.12788219749927521, -0.11033455282449722, 
  -1.1182142496109009, -1.3060318231582642, -1.3537620306015015, -1.479828953742981, -0.55027717351913452, -0.3080679178237915, -0.30888107419013977, 0.019808540120720863, 0.042133431881666183, -2.9959285259246826, -0.179769366979599, 0.20181111991405487, -0.036203902214765549, 0.071601748466491699, 0.038256201893091202, -0.043594494462013245, 0.064544424414634705, 0.020825665444135666, -0.083936110138893127, 0.22202534973621368, 0.27788618206977844, -0.20908564329147339, 0.10724534094333649, 0.20345878601074219, 0.81759637594223022, 0.88659334182739258, 0.76039892435073853, 0.69182807207107544, 0.63236397504806519, 0.16815862059593201, -0.1667044460773468, 0.17677097022533417, -0.1895170658826828, 0.007186774630099535, 0.29869717359542847, -0.13874852657318115, -0.051852483302354813, -0.21166887879371643, 0.12302674353122711, 0.7179722785949707, 
  0.13880740106105804, -0.10750582814216614, 0.010031448677182198, 0.31676524877548218, -0.23489898443222046, -0.14471134543418884, -0.35023033618927002, -0.33434316515922546, -0.30449849367141724, 0.42354893684387207, -0.043598640710115433, -0.21185657382011414, 0.040288835763931274, 0.31052914261817932, 0.31328031420707703, 0.12477449327707291, 0.16731195151805878, -0.18191739916801453, 0.12605719268321991, -0.05629618838429451, 0.48983445763587952, 0.48104238510131836, 0.61220026016235352, 0.55368584394454956, 0.92538106441497803, 0.033642571419477463, 0.089445315301418304, -0.3163662850856781, -0.22631217539310455, 0.03807394951581955, 0.12923681735992432, 0.36505588889122009, 0.16071391105651855, 0.083491891622543335, 1.1759992837905884, 0.050556141883134842, -0.48059603571891785, 0.16996702551841736, -0.21550945937633514, 0.90621429681777954, 
  -0.066910944879055023, 0.22687835991382599, 0.093068987131118774, -0.19365236163139343, -0.075018584728240967, -0.191936194896698, -0.036681134253740311, 0.17901402711868286, -0.054182089865207672, -0.056144971400499344, -0.24174334108829498, 0.25863116979598999, -0.23341187834739685, -0.079543173313140869, -0.022298535332083702, 0.095361530780792236, 0.018619393929839134, 0.16636313498020172, -0.041823282837867737, 0.15583211183547974, -0.27600929141044617, -0.11722105741500854, 0.20103730261325836, 0.11265229433774948, 0.012011238373816013, -0.23718266189098358, -0.13047224283218384, -0.20417587459087372, 0.097606927156448364, 0.078246891498565674, -0.078439787030220032, -0.22780837118625641, 0.09124717116355896, 0.23096606135368347, 0.14471067488193512, -0.15135830640792847, -0.23191370069980621, -0.17541490495204926, -0.16462992131710052, -0.15325070917606354, 
  -0.47078025341033936, -0.46616926789283752, -0.60120898485183716, -0.82652783393859863, 0.022247886285185814, 0.29948663711547852, 0.010093213990330696, 0.18378473818302155, -0.15903803706169128, 0.41531804203987122, -0.035521350800991058, -0.30647850036621094, -0.061489325016736984, 0.036181241273880005, -0.88428765535354614, 0.14126792550086975, 0.45913001894950867, 0.43719080090522766, 0.19568938016891479, 0.41339945793151855, -0.068864434957504272, 0.15432411432266235, 0.072727426886558533, 0.23692426085472107, -0.7136872410774231, -0.41911658644676208, -0.66080504655838013, -0.62117278575897217, -0.84987878799438477, -1.5644922256469727, 0.033356375992298126, 0.054644372314214706, 0.42939966917037964, 0.41449785232543945, -1.2579886913299561, -0.015431350097060204, 0.058246809989213943, 0.32450023293495178, 0.20905308425426483, 0.025538068264722824, 
};
const TfArray<2, int> tensor_dimension4 = { 2, { 40,40 } };
const ALIGN(16) float tensor_data5[20*40] = { 
  0.72577214241027832, 0.080803528428077698, 0.25451990962028503, -0.081951797008514404, -0.40593692660331726, -0.77774286270141602, 0.27489393949508667, -0.085085421800613403, -0.28077468276023865, -0.22409453988075256, -0.13783597946166992, -1.2921187877655029, 0.10760100185871124, 1.3141164779663086, -0.44755145907402039, -0.16021347045898438, 1.073424220085144, -0.1940234899520874, 0.53387713432312012, 1.2760626077651978, 0.47281596064567566, -0.46153289079666138, -0.043780151754617691, -0.38197046518325806, -0.25221514701843262, -0.48573413491249084, -1.2932727336883545, -0.057231131941080093, -0.44037050008773804, 0.085861623287200928, -0.5149199366569519, 0.036407634615898132, -0.28424379229545593, -0.6492992639541626, -0.11768889427185059, 1.3959110975265503, -0.28952375054359436, -0.23595277965068817, 0.0040890797972679138, -0.70985567569732666, 
  -0.046630289405584335, -0.14547237753868103, 0.065736070275306702, 0.21215596795082092, -0.19500096142292023, 0.71110916137695312, -0.06875474750995636, -0.23409056663513184, -0.10372708737850189, 1.1281147003173828, -0.14596346020698547, 1.6835274696350098, -0.88502311706542969, -0.037999749183654785, 1.2306951284408569, -0.18972742557525635, 0.096425279974937439, 0.98687839508056641, -0.01760481484234333, -0.019139880314469337, -0.073561698198318481, -0.16591727733612061, 0.79076468944549561, 0.13372071087360382, 0.076032757759094238, 1.4871585369110107, 2.9907846450805664, -0.36795502901077271, 1.7835351228713989, 0.097462452948093414, 2.3520770072937012, -0.30310779809951782, -0.23538428544998169, 0.14353747665882111, -0.077372625470161438, -0.11420575529336929, -0.29110559821128845, 0.062157314270734787, 0.14924317598342896, 1.5062961578369141, 
  0.35183811187744141, 0.071572236716747284, 0.18641476333141327, 0.12734249234199524, -1.2293105125427246, -0.78730446100234985, 0.096704691648483276, 0.095282375812530518, -0.047037042677402496, -0.18133412301540375, -1.3745574951171875, -0.48418766260147095, -0.87697410583496094, 0.023160010576248169, -2.4778964519500732, 0.18406513333320618, 1.2604706287384033, -0.1266019344329834, 0.36398565769195557, 0.42714840173721313, -0.12007225304841995, 0.66893088817596436, -1.0989967584609985, 1.0410970449447632, 0.078940108418464661, -0.33134320378303528, -1.3176281452178955, -0.38643306493759155, -0.16630001366138458, 0.74587440490722656, -2.015211820602417, 0.052084855735301971, -1.3019540309906006, 0.59986960887908936, 0.1552746593952179, 0.7816888689994812, 0.29234018921852112, -0.42151054739952087, 0.28112995624542236, 1.1898704767227173, 
  -0.56886172294616699, -0.18192139267921448, -0.038798660039901733, 0.1933123767375946, 0.24254406988620758, 2.031580924987793, 0.0055400412529706955, -0.071450084447860718, 0.082603521645069122, -0.063888520002365112, 0.36658814549446106, 1.7770087718963623, 0.40717056393623352, -0.81338959932327271, 0.28421273827552795, 0.12977057695388794, -0.94301718473434448, -0.16880558431148529, -0.85793614387512207, -0.19451591372489929, -0.66530555486679077, -0.99992382526397705, 1.6834458112716675, -0.25538221001625061, -0.11938858032226562, -0.24903595447540283, 3.2141876220703125, 0.45881342887878418, -0.18730847537517548, -0.43680965900421143, 3.2095966339111328, -0.033928435295820236, -0.51768964529037476, -0.90458768606185913, -0.10340237617492676, -0.84306627511978149, -1.0690244436264038, -0.21342852711677551, 0.0787368044257164, -0.13145327568054199, 
  0.050734657794237137, -0.15412786602973938, -0.29293280839920044, -0.10666191577911377, 0.29251781105995178, 0.76527035236358643, -0.25930455327033997, -0.047433972358703613, 0.068451158702373505, -0.032359886914491653, 0.42241626977920532, -1.1345564126968384, 1.834541916847229, 0.0037350461352616549, 0.074515104293823242, 0.21052262187004089, -0.22704692184925079, -0.5621907114982605, 0.0045766513794660568, 0.14790549874305725, 0.050832699984312057, -1.459592342376709, 0.62273025512695312, -2.2067148685455322, -0.13102766871452332, -0.53467988967895508, -1.3512008190155029, 0.8686755895614624, -1.3339298963546753, -0.19812583923339844, 0.30447998642921448, 0.2752571702003479, 0.023375937715172768, -1.1228514909744263, -0.30655741691589355, 0.26699903607368469, 0.040906980633735657, 0.090579815208911896, 0.17847971618175507, -1.8986130952835083, 
  0.73920542001724243, -0.24519263207912445, -0.20114023983478546, 0.0089843869209289551, 0.14390860497951508, -0.91637057065963745, -0.23357096314430237, -0.1537030041217804, -0.28357779979705811, -0.25217995047569275, -0.054083492606878281, -1.4460318088531494, 0.24424293637275696, 0.75627297163009644, -1.041377067565918, 0.27285590767860413, 1.1528723239898682, -0.38162022829055786, 0.19738577306270599, 1.2294663190841675, 0.36664557456970215, -0.3249967098236084, -0.01471511647105217, -0.013135082088410854, -0.35543608665466309, -0.826774001121521, -2.1465303897857666, 0.26973846554756165, -0.54850107431411743, 0.54133719205856323, -0.84242665767669678, 0.19563406705856323, -0.4234098494052887, -0.7972341775894165, 0.082234233617782593, 0.97435039281845093, -0.36059150099754333, -0.39187368750572205, 0.034061476588249207, -0.48299863934516907, 
  0.72718292474746704, 0.029863938689231873, 0.18710091710090637, 0.03752213716506958, 1.1191394329071045, -1.09273362159729, -0.30125331878662109, -0.020184546709060669, 0.094528421759605408, 0.015677137300372124, 0.61778908967971802, -1.0629198551177979, -1.3449398279190063, 0.017146473750472069, -0.029120102524757385, -0.25966501235961914, 0.26600521802902222, 0.0041913627646863461, -0.061610348522663116, 0.82556968927383423, -0.048009581863880157, 1.9116874933242798, -0.59225612878799438, 1.1727560758590698, -0.18804262578487396, -0.0076240296475589275, -1.6287510395050049, -0.33982443809509277, -0.0067487563937902451, 0.45143017172813416, -1.6379842758178711, 0.066372290253639221, -0.0099216960370540619, 0.5514562726020813, -0.27551138401031494, 0.98611736297607422, 2.1328074932098389, -0.0095379361882805824, -0.037405297160148621, 0.011335921473801136, 
  -0.020156143233180046, -0.1609245240688324, -0.054763134568929672, -0.089729726314544678, 1.2191208600997925, 3.3840811252593994, -0.056973893195390701, -0.068156540393829346, -0.1511409729719162, -0.46058288216590881, 1.2723014354705811, 2.0727567672729492, 1.6723809242248535, -0.041654139757156372, 0.26901814341545105, 0.042622596025466919, 0.035635415464639664, -0.71099001169204712, -0.043641265481710434, 0.013292818330228329, -0.044139217585325241, 0.0080893710255622864, 0.6200413703918457, 0.030481019988656044, 0.073085792362689972, -0.34539905190467834, 3.6753721237182617, 2.0947859287261963, -0.56762796640396118, -0.081831119954586029, 3.1322243213653564, 0.78400778770446777, 0.16410617530345917, -0.23713546991348267, 0.085265070199966431, 0.0021567950025200844, 0.14897337555885315, -0.18456476926803589, 0.11023402214050293, -1.1919214725494385, 
  -0.036200791597366333, 0.032006002962589264, 0.28266474604606628, 0.17170834541320801, -0.058326218277215958, 3.4610631465911865, 0.26974859833717346, -0.049936383962631226, -0.21771322190761566, -2.028717041015625, 0.18546552956104279, 1.7114671468734741, 0.32952630519866943, -0.0044187936000525951, 0.47372466325759888, 0.27212360501289368, 0.054901335388422012, -2.6200618743896484, -0.01581609807908535, -0.040902383625507355, -0.071965090930461884, 0.25802290439605713, 0.74165606498718262, 0.1654704362154007, -0.0096976533532142639, -1.5778104066848755, 3.3733563423156738, 0.83396446704864502, -1.3869948387145996, -0.035104621201753616, 2.4628214836120605, 0.88943803310394287, -1.6017941236495972, -0.038019899278879166, 0.11358395218849182, -0.14500054717063904, -0.37146243453025818, -1.8684720993041992, 0.033283185213804245, -1.5636961460113525, 
  -0.09331967681646347, 0.064236253499984741, -0.21824505925178528, 0.21409872174263, 1.0625998973846436, 0.31422263383865356, -0.25622153282165527, -0.24614223837852478, 0.27679610252380371, 2.1205718517303467, 0.69268965721130371, -1.2607860565185547, 0.81707966327667236, 0.10365083068609238, 0.75428164005279541, -0.00043946504592895508, -0.65702986717224121, 0.14689429104328156, -0.042014837265014648, -0.00098140351474285126, 0.019765701144933701, -1.1473613977432251, 0.1464027613401413, -1.8324836492538452, -0.21146401762962341, 0.78967446088790894, -1.2604125738143921, 0.13308727741241455, 0.30653655529022217, -0.58722794055938721, -0.076788701117038727, 0.042348690330982208, 1.231894850730896, -0.93869549036026001, -0.048751503229141235, -0.14469756186008453, 1.1797217130661011, 1.0253714323043823, 0.30472874641418457, -0.55816352367401123, 
  0.0075391740538179874, 0.04909137636423111, -0.19382812082767487, 0.053039640188217163, -0.4958864152431488, -2.0463902950286865, 0.24702847003936768, 0.0028927326202392578, 0.034705288708209991, 1.5978001356124878, -0.51730912923812866, -0.15209795534610748, -1.3162184953689575, 0.06756126880645752, 0.63483196496963501, -0.11262592673301697, 0.0042675323784351349, 1.985623836517334, 0.029513683170080185, 0.054045841097831726, 0.0094369007274508476, -0.0012817967217415571, 0.30612707138061523, 0.13529248535633087, -1.5037494897842407, 1.688542366027832, -1.1489511728286743, -0.8299599289894104, 1.9655694961547852, 0.013862538151443005, -0.62486720085144043, -1.2871168851852417, -0.16694660484790802, 0.39481663703918457, 0.25571629405021667, -0.025630917400121689, -0.42777958512306213, 0.23701284825801849, 0.039534017443656921, 1.163325309753418, 
  0.033222086727619171, 0.11707084625959396, 0.035657331347465515, -0.13366183638572693, 0.23817972838878632, 0.041517514735460281, -0.089804880321025848, -0.26249164342880249, 0.2240377813577652, -0.035103578120470047, 0.39051178097724915, 1.3156057596206665, 0.28633353114128113, 0.030184874311089516, 0.30041727423667908, 0.030757606029510498, 0.10407194495201111, 2.2252364158630371, -0.04108765721321106, 0.11177501827478409, 0.11978066712617874, 0.88423585891723633, 0.34558311104774475, 0.58537077903747559, 0.037035904824733734, 1.8422058820724487, 2.3351712226867676, 0.2496759295463562, 1.0246645212173462, 0.10676351934671402, 0.51484084129333496, -0.021013092249631882, 1.7363812923431396, 0.29300636053085327, 0.093022286891937256, 0.32299861311912537, 0.6884390115737915, 1.8284951448440552, -0.29011267423629761, 1.6152306795120239, 
  0.11504077166318893, -0.16542899608612061, 0.0024439957924187183, -0.13418357074260712, 0.068965017795562744, -2.3117063045501709, -0.28807678818702698, -0.098900347948074341, 0.27397453784942627, 2.1477229595184326, -0.39125794172286987, -0.015838360413908958, -0.049171146005392075, 0.1015174612402916, 0.73374193906784058, -0.28377056121826172, -0.016731929033994675, 2.5810849666595459, 0.16626989841461182, 0.067987367510795593, 0.13628923892974854, 0.15964318811893463, -0.20363618433475494, -0.08988383412361145, -1.2347959280014038, 1.9578113555908203, -0.80572378635406494, -0.094444409012794495, 1.2564859390258789, -0.044306948781013489, -0.86595344543457031, -1.4956823587417603, 1.6371877193450928, 0.28189384937286377, 0.23949214816093445, 0.10273072123527527, 0.21254481375217438, 1.6100138425827026, -0.032134182751178741, 1.0343598127365112, 
  0.053304463624954224, -0.24681748449802399, 0.14224691689014435, 0.22952798008918762, 0.87358695268630981, -0.38820454478263855, -0.19537532329559326, 0.2981899082660675, 0.10571423918008804, -0.46060305833816528, 1.5623956918716431, 1.595470666885376, -0.2088921070098877, 0.11383312195539474, 0.0065979738719761372, 0.041810125112533569, -0.091447800397872925, -0.031809594482183456, 0.088196754455566406, 0.11278302222490311, 0.11150434613227844, 1.193805456161499, -0.88371729850769043, 2.567234992980957, 0.69753128290176392, 0.022756936028599739, 2.1759412288665771, 0.85958355665206909, -0.00050203374121338129, 0.6407235860824585, -0.26680862903594971, -0.10670348256826401, 0.17762048542499542, 0.78040218353271484, 0.09722137451171875, 0.61576956510543823, 0.77488982677459717, 0.022067742422223091, -0.20821753144264221, -0.41048693656921387, 
  -0.16201439499855042, -0.22056050598621368, 0.25498858094215393, -0.01818200945854187, 1.8473217487335205, 0.32779225707054138, 0.10970404744148254, 0.05729106068611145, -0.26142123341560364, 0.45875036716461182, 1.5843960046768188, 2.022599458694458, 0.26894122362136841, -0.182658851146698, 1.3250223398208618, -0.29645681381225586, -0.3114890456199646, 0.030463706701993942, -0.1719675213098526, -0.11921355128288269, -0.19090479612350464, -0.16117416322231293, 0.3922235369682312, -0.13673132658004761, 0.47990357875823975, 0.35154405236244202, 3.1649169921875, 0.4983614981174469, 0.076989293098449707, 0.016211738809943199, 1.8901476860046387, 0.025346865877509117, 1.0695908069610596, -0.16936029493808746, -0.046690195798873901, -0.12164285033941269, 1.1658467054367065, 0.60673815011978149, -0.0046839797869324684, 0.16981351375579834, 
  0.67334264516830444, 0.021840998902916908, -0.050074789673089981, -0.068393588066101074, 1.8381903171539307, 0.049098432064056396, 0.14071643352508545, 0.23928120732307434, -0.038299906998872757, 0.021253464743494987, 2.7185087203979492, -1.4164060354232788, 0.47825372219085693, -0.082740180194377899, -0.014305394142866135, 0.2424723207950592, -0.46664279699325562, -0.0081086717545986176, -0.085710793733596802, 0.41949355602264404, 0.098021306097507477, 0.69292235374450684, 0.18549443781375885, -1.23175048828125, -0.040513060986995697, -0.039505280554294586, -1.5621273517608643, 0.67722755670547485, -0.010267843492329121, -0.10931921005249023, -0.19837537407875061, -0.59862571954727173, -0.020792379975318909, -0.53135669231414795, 0.27357366681098938, 1.6954078674316406, 2.313701868057251, -0.0021681669168174267, 0.21913416683673859, 0.019606299698352814, 
  0.19411389529705048, 0.24336795508861542, -0.084515124559402466, 0.14117127656936646, 0.047972332686185837, 3.0324056148529053, -0.02608102560043335, -0.026296049356460571, -0.078216753900051117, -0.39396727085113525, -0.044620908796787262, 1.2712372541427612, 0.48246276378631592, 0.082914993166923523, -0.74964123964309692, -0.16590364277362823, 1.4640733003616333, -0.25456425547599792, -0.085782669484615326, 0.50704562664031982, 0.089907124638557434, -0.49732658267021179, -0.24192272126674652, 0.2053772509098053, 2.882321834564209, -0.093349717557430267, 1.738972544670105, 0.37046205997467041, -0.14952470362186432, 2.2682216167449951, 1.8879128694534302, 2.7010529041290283, 0.081068247556686401, -0.9223206639289856, 0.20804378390312195, 0.54468035697937012, -0.29901590943336487, -0.07893536239862442, 0.017960632219910622, -0.32048541307449341, 
  0.10478139668703079, -0.28751510381698608, -0.040029767900705338, -0.24588009715080261, 2.8389394283294678, 1.0626105070114136, -0.018732000142335892, -0.11687847971916199, 0.022749951109290123, -0.0087249903008341789, 2.9146664142608643, -2.0405166149139404, 1.290073037147522, -0.07771504670381546, -0.0050436663441359997, 0.16870921850204468, -1.0893285274505615, 0.0023491564206779003, 0.098069928586483002, 0.16307272017002106, -0.0050478237681090832, 0.75464802980422974, -0.062735617160797119, -1.3012057542800903, -0.049602847546339035, 0.0047574690543115139, -1.7092185020446777, 1.165718674659729, 0.0079054487869143486, -0.80629205703735352, 0.47145095467567444, -0.043155696243047714, -0.0082686208188533783, 0.39931535720825195, -0.0092410445213317871, 0.4682019054889679, 2.9924056529998779, 0.0027446746826171875, 0.00040464557241648436, -0.0063668908551335335, 
  0.16325059533119202, 0.13178563117980957, -0.0022115176543593407, -0.2916409969329834, -2.5488572120666504, -0.82416391372680664, 0.30186313390731812, 0.14471861720085144, 0.27619665861129761, 0.21062450110912323, -1.9013748168945312, -0.25555074214935303, -0.98072415590286255, 0.34552726149559021, 0.11997805535793304, -0.21525633335113525, 1.0344697237014771, -0.026667622849345207, -0.21486663818359375, 0.28534868359565735, 0.01082140114158392, -0.45685094594955444, -1.3061848878860474, 0.50200057029724121, -0.29144960641860962, -0.062799252569675446, -1.6966350078582764, -0.41731268167495728, -0.044266607612371445, 0.89578080177307129, -1.8441445827484131, 0.32165965437889099, 0.25517499446868896, -0.24656786024570465, -0.23546689748764038, 0.55065375566482544, -3.0508630275726318, -0.04127848893404007, -0.071487031877040863, 0.12180466204881668, 
  -1.9370625019073486, 0.22177059948444366, 0.18022161722183228, -0.1676681786775589, 0.13374045491218567, 0.57276958227157593, -0.10099412500858307, 0.065828889608383179, 0.26994124054908752, 0.010413459502160549, -0.18616929650306702, 1.6366912126541138, -0.051762897521257401, -3.0252747535705566, 0.13573451340198517, -0.25152376294136047, -0.5247039794921875, -0.020433075726032257, -1.2970892190933228, -0.83312529325485229, -2.3228003978729248, 1.6163551807403564, 0.41075065732002258, 0.44085276126861572, 0.11595336347818375, -0.024435127153992653, 1.3109195232391357, -0.18708118796348572, -0.010964899323880672, -0.044275984168052673, 0.74663394689559937, -0.057806707918643951, 0.0037883245386183262, 0.36292269825935364, -0.1790015697479248, -1.7614721059799194, 0.896148681640625, -0.022010734304785728, -0.30267447233200073, 0.0024011272471398115, 
};
const TfArray<2, int> tensor_dimension5 = { 2, { 20,40 } };
const ALIGN(16) float tensor_data6[9*20] = { 
  -2.8446254730224609, 0.15649603307247162, -1.3462203741073608, 0.9653516411781311, -0.21307770907878876, -0.89867705106735229, -1.5000754594802856, 0.76527059078216553, 0.68294417858123779, -2.3390598297119141, -1.9465465545654297, -0.21030604839324951, -2.4188473224639893, 1.1440355777740479, 0.221405029296875, -1.8771814107894897, 0.27181914448738098, -0.15822041034698486, -2.2167365550994873, 1.7553222179412842, 
  0.33516061305999756, -1.3646538257598877, -0.3769623339176178, -2.2286410331726074, 1.4477634429931641, 0.34336385130882263, 0.38591933250427246, 0.51578843593597412, -2.2732846736907959, 0.3032967746257782, -0.6044849157333374, 0.21420577168464661, 0.18370832502841949, 0.77431255578994751, 0.1367194652557373, 0.65477651357650757, -0.26039087772369385, 0.79147446155548096, -0.67060518264770508, -2.6549355983734131, 
  -1.1432036161422729, 0.34659478068351746, -0.41926771402359009, -0.10830722749233246, -0.60498404502868652, -1.5825541019439697, 0.62642228603363037, 0.016384392976760864, -1.5396769046783447, 0.26008257269859314, 0.260294109582901, 0.28657463192939758, 0.26378312706947327, 0.70160681009292603, 0.13230451941490173, 0.51006627082824707, -2.0261385440826416, 0.67011106014251709, -0.087211832404136658, -0.44817641377449036, 
  -0.31078597903251648, 0.36275312304496765, 0.48992007970809937, -2.9283981323242188, -0.74381095170974731, -0.7426181435585022, -1.0273584127426147, -1.203566312789917, -2.6519858837127686, 0.28621849417686462, 0.2732674777507782, 0.29952237010002136, 0.27796897292137146, -1.3057335615158081, 0.16598784923553467, -2.0207669734954834, -0.3658519983291626, -3.2023415565490723, 0.52382099628448486, -2.680124044418335, 
  -0.78170633316040039, 0.34729790687561035, 0.21934168040752411, -0.95171767473220825, -0.90249747037887573, -1.5546556711196899, 0.25620573759078979, -2.4189963340759277, -2.3462619781494141, 0.26786467432975769, 0.27411732077598572, 0.29228776693344116, 0.27126616239547729, -2.2062933444976807, 0.11471475660800934, 0.12191624939441681, -1.9424260854721069, 0.46067681908607483, -0.76232218742370605, 0.49294370412826538, 
  -0.92526698112487793, 0.34384015202522278, -0.69117522239685059, 0.026348922401666641, -1.331179141998291, -1.6180232763290405, -1.2944562435150146, -1.6390949487686157, -1.9525911808013916, 0.28499546647071838, 0.26569017767906189, 0.28541252017021179, 0.26897329092025757, -0.56912684440612793, 0.13493415713310242, -2.5200374126434326, -2.1592185497283936, -2.7649955749511719, 0.43457955121994019, 0.17047598958015442, 
  0.20302078127861023, -0.36429542303085327, -3.2110867500305176, 0.74154859781265259, 1.1969950199127197, 0.41152608394622803, -1.3062317371368408, 0.65370476245880127, 0.57482445240020752, 0.10688232630491257, -1.1335517168045044, -4.4013643264770508, -1.4912948608398438, -1.7425440549850464, -0.37848824262619019, 0.27894815802574158, 0.20062334835529327, 0.43634665012359619, -2.5736324787139893, -2.5156357288360596, 
  0.58782094717025757, 0.18406851589679718, 0.84099793434143066, -2.1981813907623291, -2.4132764339447021, 0.67087012529373169, 0.83162826299667358, -2.6037018299102783, -2.3040058612823486, -1.2164992094039917, 0.17451602220535278, 0.1195082813501358, 0.14496129751205444, 0.21483922004699707, -2.6662771701812744, 0.17502617835998535, 0.18092627823352814, -1.5289260149002075, 0.51713305711746216, -2.051100492477417, 
  0.62271225452423096, -2.8955318927764893, 0.75441253185272217, -1.3640064001083374, -0.20211333036422729, 0.7251400351524353, 0.84010595083236694, 0.22404168546199799, 0.52115929126739502, -2.7661902904510498, -3.9039909839630127, -2.1843986511230469, -3.4322333335876465, 0.47758907079696655, -4.6661028861999512, 0.22318226099014282, 0.24286307394504547, -1.0840795040130615, 0.33512899279594421, -1.0804041624069214, 
};
const TfArray<2, int> tensor_dimension6 = { 2, { 9,20 } };
const TfArray<2, int> tensor_dimension7 = { 2, { 1,40 } };
const TfArray<2, int> tensor_dimension8 = { 2, { 1,20 } };
const TfArray<2, int> tensor_dimension9 = { 2, { 1,9 } };
const TfArray<2, int> tensor_dimension10 = { 2, { 1,9 } };
const TfLiteFullyConnectedParams opdata0 = { kTfLiteActRelu, kTfLiteFullyConnectedWeightsFormatDefault, false, false };
const TfArray<3, int> inputs0 = { 3, { 0,4,3 } };
const TfArray<1, int> outputs0 = { 1, { 7 } };
const TfLiteFullyConnectedParams opdata1 = { kTfLiteActRelu, kTfLiteFullyConnectedWeightsFormatDefault, false, false };
const TfArray<3, int> inputs1 = { 3, { 7,5,2 } };
const TfArray<1, int> outputs1 = { 1, { 8 } };
const TfLiteFullyConnectedParams opdata2 = { kTfLiteActNone, kTfLiteFullyConnectedWeightsFormatDefault, false, false };
const TfArray<3, int> inputs2 = { 3, { 8,6,1 } };
const TfArray<1, int> outputs2 = { 1, { 9 } };
const TfLiteSoftmaxParams opdata3 = { 1 };
const TfArray<1, int> inputs3 = { 1, { 9 } };
const TfArray<1, int> outputs3 = { 1, { 10 } };
const TensorInfo_t tensorData[] = {
  { kTfLiteArenaRw, tensor_arena + 160, (TfLiteIntArray*)&tensor_dimension0, 160, },
  { kTfLiteMmapRo, (void*)tensor_data1, (TfLiteIntArray*)&tensor_dimension1, 36, },
  { kTfLiteMmapRo, (void*)tensor_data2, (TfLiteIntArray*)&tensor_dimension2, 80, },
  { kTfLiteMmapRo, (void*)tensor_data3, (TfLiteIntArray*)&tensor_dimension3, 160, },
  { kTfLiteMmapRo, (void*)tensor_data4, (TfLiteIntArray*)&tensor_dimension4, 6400, },
  { kTfLiteMmapRo, (void*)tensor_data5, (TfLiteIntArray*)&tensor_dimension5, 3200, },
  { kTfLiteMmapRo, (void*)tensor_data6, (TfLiteIntArray*)&tensor_dimension6, 720, },
  { kTfLiteArenaRw, tensor_arena + 0, (TfLiteIntArray*)&tensor_dimension7, 160, },
  { kTfLiteArenaRw, tensor_arena + 160, (TfLiteIntArray*)&tensor_dimension8, 80, },
  { kTfLiteArenaRw, tensor_arena + 48, (TfLiteIntArray*)&tensor_dimension9, 36, },
  { kTfLiteArenaRw, tensor_arena + 0, (TfLiteIntArray*)&tensor_dimension10, 36, },
};const NodeInfo_t nodeData[] = {
  { (TfLiteIntArray*)&inputs0, (TfLiteIntArray*)&outputs0, const_cast<void*>(static_cast<const void*>(&opdata0)), OP_FULLY_CONNECTED, },
  { (TfLiteIntArray*)&inputs1, (TfLiteIntArray*)&outputs1, const_cast<void*>(static_cast<const void*>(&opdata1)), OP_FULLY_CONNECTED, },
  { (TfLiteIntArray*)&inputs2, (TfLiteIntArray*)&outputs2, const_cast<void*>(static_cast<const void*>(&opdata2)), OP_FULLY_CONNECTED, },
  { (TfLiteIntArray*)&inputs3, (TfLiteIntArray*)&outputs3, const_cast<void*>(static_cast<const void*>(&opdata3)), OP_SOFTMAX, },
};
static std::vector<void*> overflow_buffers;
static void * AllocatePersistentBuffer(struct TfLiteContext* ctx,
                                       size_t bytes) {
  void *ptr;
  if (current_location - bytes < tensor_boundary) {
    // OK, this will look super weird, but.... we have CMSIS-NN buffers which
    // we cannot calculate beforehand easily.
    ptr = ei_calloc(bytes, 1);
    if (ptr == NULL) {
      printf("ERR: Failed to allocate persistent buffer of size %d\n", (int)bytes);
      return NULL;
    }
    overflow_buffers.push_back(ptr);
    return ptr;
  }

  current_location -= bytes;

  ptr = current_location;
  memset(ptr, 0, bytes);

  return ptr;
}
typedef struct {
  size_t bytes;
  void *ptr;
} scratch_buffer_t;
static std::vector<scratch_buffer_t> scratch_buffers;

static TfLiteStatus RequestScratchBufferInArena(struct TfLiteContext* ctx, size_t bytes,
                                                int* buffer_idx) {
  scratch_buffer_t b;
  b.bytes = bytes;

  b.ptr = AllocatePersistentBuffer(ctx, b.bytes);
  if (!b.ptr) {
    return kTfLiteError;
  }

  scratch_buffers.push_back(b);

  *buffer_idx = scratch_buffers.size() - 1;

  return kTfLiteOk;
}

static void* GetScratchBuffer(struct TfLiteContext* ctx, int buffer_idx) {
  if (buffer_idx > static_cast<int>(scratch_buffers.size()) - 1) {
    return NULL;
  }
  return scratch_buffers[buffer_idx].ptr;
}

static TfLiteTensor* GetTensor(const struct TfLiteContext* context,
                               int tensor_idx) {
  return &tflTensors[tensor_idx];
}

static TfLiteEvalTensor* GetEvalTensor(const struct TfLiteContext* context,
                                       int tensor_idx) {
  return &tflEvalTensors[tensor_idx];
}

} // namespace

TfLiteStatus trained_model_init( void*(*alloc_fnc)(size_t,size_t) ) {
#ifdef EI_CLASSIFIER_ALLOCATION_HEAP
  tensor_arena = (uint8_t*) alloc_fnc(16, kTensorArenaSize);
  if (!tensor_arena) {
    printf("ERR: failed to allocate tensor arena\n");
    return kTfLiteError;
  }
#else
  memset(tensor_arena, 0, kTensorArenaSize);
#endif
  tensor_boundary = tensor_arena;
  current_location = tensor_arena + kTensorArenaSize;
  ctx.AllocatePersistentBuffer = &AllocatePersistentBuffer;
  ctx.RequestScratchBufferInArena = &RequestScratchBufferInArena;
  ctx.GetScratchBuffer = &GetScratchBuffer;
  ctx.GetTensor = &GetTensor;
  ctx.GetEvalTensor = &GetEvalTensor;
  ctx.tensors = tflTensors;
  ctx.tensors_size = 11;
  for(size_t i = 0; i < 11; ++i) {
    tflTensors[i].type = kTfLiteFloat32;
    tflEvalTensors[i].type = kTfLiteFloat32;
    tflTensors[i].is_variable = 0;

#if defined(EI_CLASSIFIER_ALLOCATION_HEAP)
    tflTensors[i].allocation_type = tensorData[i].allocation_type;
#else
    tflTensors[i].allocation_type = (tensor_arena <= tensorData[i].data && tensorData[i].data < tensor_arena + kTensorArenaSize) ? kTfLiteArenaRw : kTfLiteMmapRo;
#endif
    tflTensors[i].bytes = tensorData[i].bytes;
    tflTensors[i].dims = tensorData[i].dims;
    tflEvalTensors[i].dims = tensorData[i].dims;

#if defined(EI_CLASSIFIER_ALLOCATION_HEAP)
    if(tflTensors[i].allocation_type == kTfLiteArenaRw){
      uint8_t* start = (uint8_t*) ((uintptr_t)tensorData[i].data + (uintptr_t) tensor_arena);

     tflTensors[i].data.data =  start;
     tflEvalTensors[i].data.data =  start;
    }
    else{
       tflTensors[i].data.data = tensorData[i].data;
       tflEvalTensors[i].data.data = tensorData[i].data;
    }
#else
    tflTensors[i].data.data = tensorData[i].data;
    tflEvalTensors[i].data.data = tensorData[i].data;
#endif // EI_CLASSIFIER_ALLOCATION_HEAP
    tflTensors[i].quantization.type = kTfLiteNoQuantization;
    if (tflTensors[i].allocation_type == kTfLiteArenaRw) {
      auto data_end_ptr = (uint8_t*)tflTensors[i].data.data + tensorData[i].bytes;
      if (data_end_ptr > tensor_boundary) {
        tensor_boundary = data_end_ptr;
      }
    }
  }
  if (tensor_boundary > current_location /* end of arena size */) {
    printf("ERR: tensor arena is too small, does not fit model - even without scratch buffers\n");
    return kTfLiteError;
  }
  registrations[OP_FULLY_CONNECTED] = Register_FULLY_CONNECTED();
  registrations[OP_SOFTMAX] = Register_SOFTMAX();

  for(size_t i = 0; i < 4; ++i) {
    tflNodes[i].inputs = nodeData[i].inputs;
    tflNodes[i].outputs = nodeData[i].outputs;
    tflNodes[i].builtin_data = nodeData[i].builtin_data;
tflNodes[i].custom_initial_data = nullptr;
      tflNodes[i].custom_initial_data_size = 0;
if (registrations[nodeData[i].used_op_index].init) {
      tflNodes[i].user_data = registrations[nodeData[i].used_op_index].init(&ctx, (const char*)tflNodes[i].builtin_data, 0);
    }
  }
  for(size_t i = 0; i < 4; ++i) {
    if (registrations[nodeData[i].used_op_index].prepare) {
      TfLiteStatus status = registrations[nodeData[i].used_op_index].prepare(&ctx, &tflNodes[i]);
      if (status != kTfLiteOk) {
        return status;
      }
    }
  }
  return kTfLiteOk;
}

static const int inTensorIndices[] = {
  0, 
};
TfLiteTensor* trained_model_input(int index) {
  return &ctx.tensors[inTensorIndices[index]];
}

static const int outTensorIndices[] = {
  10, 
};
TfLiteTensor* trained_model_output(int index) {
  return &ctx.tensors[outTensorIndices[index]];
}

TfLiteStatus trained_model_invoke() {
  for(size_t i = 0; i < 4; ++i) {
    TfLiteStatus status = registrations[nodeData[i].used_op_index].invoke(&ctx, &tflNodes[i]);

#if EI_CLASSIFIER_PRINT_STATE
    ei_printf("layer %lu\n", i);
    ei_printf("    inputs:\n");
    for (size_t ix = 0; ix < tflNodes[i].inputs->size; ix++) {
      auto d = tensorData[tflNodes[i].inputs->data[ix]];

      size_t data_ptr = (size_t)d.data;

      if (d.allocation_type == kTfLiteArenaRw) {
        data_ptr = (size_t)tensor_arena + data_ptr;
      }

      if (d.type == TfLiteType::kTfLiteInt8) {
        int8_t* data = (int8_t*)data_ptr;
        ei_printf("        %lu (%zu bytes, ptr=%p, alloc_type=%d, type=%d): ", ix, d.bytes, data, (int)d.allocation_type, (int)d.type);
        for (size_t jx = 0; jx < d.bytes; jx++) {
          ei_printf("%d ", data[jx]);
        }
      }
      else {
        float* data = (float*)data_ptr;
        ei_printf("        %lu (%zu bytes, ptr=%p, alloc_type=%d, type=%d): ", ix, d.bytes, data, (int)d.allocation_type, (int)d.type);
        for (size_t jx = 0; jx < d.bytes / 4; jx++) {
          ei_printf("%f ", data[jx]);
        }
      }
      ei_printf("\n");
    }
    ei_printf("\n");

    ei_printf("    outputs:\n");
    for (size_t ix = 0; ix < tflNodes[i].outputs->size; ix++) {
      auto d = tensorData[tflNodes[i].outputs->data[ix]];

      size_t data_ptr = (size_t)d.data;

      if (d.allocation_type == kTfLiteArenaRw) {
        data_ptr = (size_t)tensor_arena + data_ptr;
      }

      if (d.type == TfLiteType::kTfLiteInt8) {
        int8_t* data = (int8_t*)data_ptr;
        ei_printf("        %lu (%zu bytes, ptr=%p, alloc_type=%d, type=%d): ", ix, d.bytes, data, (int)d.allocation_type, (int)d.type);
        for (size_t jx = 0; jx < d.bytes; jx++) {
          ei_printf("%d ", data[jx]);
        }
      }
      else {
        float* data = (float*)data_ptr;
        ei_printf("        %lu (%zu bytes, ptr=%p, alloc_type=%d, type=%d): ", ix, d.bytes, data, (int)d.allocation_type, (int)d.type);
        for (size_t jx = 0; jx < d.bytes / 4; jx++) {
          ei_printf("%f ", data[jx]);
        }
      }
      ei_printf("\n");
    }
    ei_printf("\n");
#endif // EI_CLASSIFIER_PRINT_STATE

    if (status != kTfLiteOk) {
      return status;
    }
  }
  return kTfLiteOk;
}

TfLiteStatus trained_model_reset( void (*free_fnc)(void* ptr) ) {
#ifdef EI_CLASSIFIER_ALLOCATION_HEAP
  free_fnc(tensor_arena);
#endif
  scratch_buffers.clear();
  for (size_t ix = 0; ix < overflow_buffers.size(); ix++) {
    free(overflow_buffers[ix]);
  }
  overflow_buffers.clear();
  return kTfLiteOk;
}
